digraph Tree {
node [shape=box] ;
0 [label="Sex <= 0.5\ngini = 0.467\nsamples = 596\nvalue = [375, 221]\nclass = Survived"] ;
1 [label="Pclass <= 2.5\ngini = 0.376\nsamples = 207\nvalue = [52, 155]\nclass = Died"] ;
0 -> 1 [labeldistance=2.5, labelangle=45, headlabel="True"] ;
2 [label="Fare <= 2.5\ngini = 0.1\nsamples = 114\nvalue = [6, 108]\nclass = Died"] ;
1 -> 2 ;
3 [label="Pclass <= 1.5\ngini = 0.194\nsamples = 46\nvalue = [5, 41]\nclass = Died"] ;
2 -> 3 ;
4 [label="Embarked <= 0.5\ngini = 0.375\nsamples = 4\nvalue = [1, 3]\nclass = Died"] ;
3 -> 4 ;
5 [label="gini = 0.0\nsamples = 2\nvalue = [0, 2]\nclass = Died"] ;
4 -> 5 ;
6 [label="Cabin <= 0.5\ngini = 0.5\nsamples = 2\nvalue = [1, 1]\nclass = Survived"] ;
4 -> 6 ;
7 [label="gini = 0.0\nsamples = 1\nvalue = [0, 1]\nclass = Died"] ;
6 -> 7 ;
8 [label="gini = 0.0\nsamples = 1\nvalue = [1, 0]\nclass = Survived"] ;
6 -> 8 ;
9 [label="Age <= 2.5\ngini = 0.172\nsamples = 42\nvalue = [4, 38]\nclass = Died"] ;
3 -> 9 ;
10 [label="Cabin <= 0.5\ngini = 0.193\nsamples = 37\nvalue = [4, 33]\nclass = Died"] ;
9 -> 10 ;
11 [label="Age <= 0.5\ngini = 0.213\nsamples = 33\nvalue = [4, 29]\nclass = Died"] ;
10 -> 11 ;
12 [label="gini = 0.0\nsamples = 4\nvalue = [0, 4]\nclass = Died"] ;
11 -> 12 ;
13 [label="Embarked <= 0.5\ngini = 0.238\nsamples = 29\nvalue = [4, 25]\nclass = Died"] ;
11 -> 13 ;
14 [label="Parch <= 0.5\ngini = 0.252\nsamples = 27\nvalue = [4, 23]\nclass = Died"] ;
13 -> 14 ;
15 [label="Age <= 1.5\ngini = 0.305\nsamples = 16\nvalue = [3, 13]\nclass = Died"] ;
14 -> 15 ;
16 [label="SibSp <= 0.5\ngini = 0.198\nsamples = 9\nvalue = [1, 8]\nclass = Died"] ;
15 -> 16 ;
17 [label="gini = 0.32\nsamples = 5\nvalue = [1, 4]\nclass = Died"] ;
16 -> 17 ;
18 [label="gini = 0.0\nsamples = 4\nvalue = [0, 4]\nclass = Died"] ;
16 -> 18 ;
19 [label="SibSp <= 0.5\ngini = 0.408\nsamples = 7\nvalue = [2, 5]\nclass = Died"] ;
15 -> 19 ;
20 [label="Fare <= 1.5\ngini = 0.32\nsamples = 5\nvalue = [1, 4]\nclass = Died"] ;
19 -> 20 ;
21 [label="gini = 0.375\nsamples = 4\nvalue = [1, 3]\nclass = Died"] ;
20 -> 21 ;
22 [label="gini = 0.0\nsamples = 1\nvalue = [0, 1]\nclass = Died"] ;
20 -> 22 ;
23 [label="gini = 0.5\nsamples = 2\nvalue = [1, 1]\nclass = Survived"] ;
19 -> 23 ;
24 [label="SibSp <= 0.5\ngini = 0.165\nsamples = 11\nvalue = [1, 10]\nclass = Died"] ;
14 -> 24 ;
25 [label="gini = 0.0\nsamples = 5\nvalue = [0, 5]\nclass = Died"] ;
24 -> 25 ;
26 [label="Age <= 1.5\ngini = 0.278\nsamples = 6\nvalue = [1, 5]\nclass = Died"] ;
24 -> 26 ;
27 [label="gini = 0.375\nsamples = 4\nvalue = [1, 3]\nclass = Died"] ;
26 -> 27 ;
28 [label="gini = 0.0\nsamples = 2\nvalue = [0, 2]\nclass = Died"] ;
26 -> 28 ;
29 [label="gini = 0.0\nsamples = 2\nvalue = [0, 2]\nclass = Died"] ;
13 -> 29 ;
30 [label="gini = 0.0\nsamples = 4\nvalue = [0, 4]\nclass = Died"] ;
10 -> 30 ;
31 [label="gini = 0.0\nsamples = 5\nvalue = [0, 5]\nclass = Died"] ;
9 -> 31 ;
32 [label="Age <= 0.5\ngini = 0.029\nsamples = 68\nvalue = [1, 67]\nclass = Died"] ;
2 -> 32 ;
33 [label="Parch <= 1.5\ngini = 0.278\nsamples = 6\nvalue = [1, 5]\nclass = Died"] ;
32 -> 33 ;
34 [label="gini = 0.0\nsamples = 4\nvalue = [0, 4]\nclass = Died"] ;
33 -> 34 ;
35 [label="Embarked <= 0.5\ngini = 0.5\nsamples = 2\nvalue = [1, 1]\nclass = Survived"] ;
33 -> 35 ;
36 [label="gini = 0.0\nsamples = 1\nvalue = [1, 0]\nclass = Survived"] ;
35 -> 36 ;
37 [label="gini = 0.0\nsamples = 1\nvalue = [0, 1]\nclass = Died"] ;
35 -> 37 ;
38 [label="gini = 0.0\nsamples = 62\nvalue = [0, 62]\nclass = Died"] ;
32 -> 38 ;
39 [label="Embarked <= 0.5\ngini = 0.5\nsamples = 93\nvalue = [46, 47]\nclass = Died"] ;
1 -> 39 ;
40 [label="SibSp <= 1.5\ngini = 0.452\nsamples = 58\nvalue = [38, 20]\nclass = Survived"] ;
39 -> 40 ;
41 [label="Cabin <= 0.5\ngini = 0.496\nsamples = 44\nvalue = [24, 20]\nclass = Survived"] ;
40 -> 41 ;
42 [label="Age <= 2.5\ngini = 0.489\nsamples = 40\nvalue = [23, 17]\nclass = Survived"] ;
41 -> 42 ;
43 [label="SibSp <= 0.5\ngini = 0.484\nsamples = 39\nvalue = [23, 16]\nclass = Survived"] ;
42 -> 43 ;
44 [label="Age <= 1.5\ngini = 0.444\nsamples = 24\nvalue = [16, 8]\nclass = Survived"] ;
43 -> 44 ;
45 [label="Parch <= 3.0\ngini = 0.48\nsamples = 20\nvalue = [12, 8]\nclass = Survived"] ;
44 -> 45 ;
46 [label="Parch <= 0.5\ngini = 0.488\nsamples = 19\nvalue = [11, 8]\nclass = Survived"] ;
45 -> 46 ;
47 [label="Fare <= 0.5\ngini = 0.469\nsamples = 16\nvalue = [10, 6]\nclass = Survived"] ;
46 -> 47 ;
48 [label="Age <= 0.5\ngini = 0.494\nsamples = 9\nvalue = [5, 4]\nclass = Survived"] ;
47 -> 48 ;
49 [label="gini = 0.0\nsamples = 1\nvalue = [1, 0]\nclass = Survived"] ;
48 -> 49 ;
50 [label="gini = 0.5\nsamples = 8\nvalue = [4, 4]\nclass = Survived"] ;
48 -> 50 ;
51 [label="Age <= 0.5\ngini = 0.408\nsamples = 7\nvalue = [5, 2]\nclass = Survived"] ;
47 -> 51 ;
52 [label="gini = 0.0\nsamples = 1\nvalue = [0, 1]\nclass = Died"] ;
51 -> 52 ;
53 [label="gini = 0.278\nsamples = 6\nvalue = [5, 1]\nclass = Survived"] ;
51 -> 53 ;
54 [label="Fare <= 1.5\ngini = 0.444\nsamples = 3\nvalue = [1, 2]\nclass = Died"] ;
46 -> 54 ;
55 [label="gini = 0.0\nsamples = 1\nvalue = [0, 1]\nclass = Died"] ;
54 -> 55 ;
56 [label="gini = 0.5\nsamples = 2\nvalue = [1, 1]\nclass = Survived"] ;
54 -> 56 ;
57 [label="gini = 0.0\nsamples = 1\nvalue = [1, 0]\nclass = Survived"] ;
45 -> 57 ;
58 [label="gini = 0.0\nsamples = 4\nvalue = [4, 0]\nclass = Survived"] ;
44 -> 58 ;
59 [label="Age <= 1.5\ngini = 0.498\nsamples = 15\nvalue = [7, 8]\nclass = Died"] ;
43 -> 59 ;
60 [label="Fare <= 0.5\ngini = 0.496\nsamples = 11\nvalue = [6, 5]\nclass = Survived"] ;
59 -> 60 ;
61 [label="gini = 0.0\nsamples = 1\nvalue = [0, 1]\nclass = Died"] ;
60 -> 61 ;
62 [label="Age <= 0.5\ngini = 0.48\nsamples = 10\nvalue = [6, 4]\nclass = Survived"] ;
60 -> 62 ;
63 [label="gini = 0.0\nsamples = 1\nvalue = [0, 1]\nclass = Died"] ;
62 -> 63 ;
64 [label="Fare <= 1.5\ngini = 0.444\nsamples = 9\nvalue = [6, 3]\nclass = Survived"] ;
62 -> 64 ;
65 [label="gini = 0.0\nsamples = 3\nvalue = [3, 0]\nclass = Survived"] ;
64 -> 65 ;
66 [label="Parch <= 0.5\ngini = 0.5\nsamples = 6\nvalue = [3, 3]\nclass = Survived"] ;
64 -> 66 ;
67 [label="gini = 0.5\nsamples = 4\nvalue = [2, 2]\nclass = Survived"] ;
66 -> 67 ;
68 [label="gini = 0.5\nsamples = 2\nvalue = [1, 1]\nclass = Survived"] ;
66 -> 68 ;
69 [label="Parch <= 2.5\ngini = 0.375\nsamples = 4\nvalue = [1, 3]\nclass = Died"] ;
59 -> 69 ;
70 [label="gini = 0.0\nsamples = 2\nvalue = [0, 2]\nclass = Died"] ;
69 -> 70 ;
71 [label="Parch <= 4.5\ngini = 0.5\nsamples = 2\nvalue = [1, 1]\nclass = Survived"] ;
69 -> 71 ;
72 [label="gini = 0.0\nsamples = 1\nvalue = [1, 0]\nclass = Survived"] ;
71 -> 72 ;
73 [label="gini = 0.0\nsamples = 1\nvalue = [0, 1]\nclass = Died"] ;
71 -> 73 ;
74 [label="gini = 0.0\nsamples = 1\nvalue = [0, 1]\nclass = Died"] ;
42 -> 74 ;
75 [label="SibSp <= 0.5\ngini = 0.375\nsamples = 4\nvalue = [1, 3]\nclass = Died"] ;
41 -> 75 ;
76 [label="gini = 0.0\nsamples = 2\nvalue = [0, 2]\nclass = Died"] ;
75 -> 76 ;
77 [label="Age <= 0.5\ngini = 0.5\nsamples = 2\nvalue = [1, 1]\nclass = Survived"] ;
75 -> 77 ;
78 [label="gini = 0.0\nsamples = 1\nvalue = [0, 1]\nclass = Died"] ;
77 -> 78 ;
79 [label="gini = 0.0\nsamples = 1\nvalue = [1, 0]\nclass = Survived"] ;
77 -> 79 ;
80 [label="gini = 0.0\nsamples = 14\nvalue = [14, 0]\nclass = Survived"] ;
40 -> 80 ;
81 [label="Age <= 1.5\ngini = 0.353\nsamples = 35\nvalue = [8, 27]\nclass = Died"] ;
39 -> 81 ;
82 [label="Age <= 0.5\ngini = 0.327\nsamples = 34\nvalue = [7, 27]\nclass = Died"] ;
81 -> 82 ;
83 [label="gini = 0.0\nsamples = 8\nvalue = [0, 8]\nclass = Died"] ;
82 -> 83 ;
84 [label="Parch <= 0.5\ngini = 0.393\nsamples = 26\nvalue = [7, 19]\nclass = Died"] ;
82 -> 84 ;
85 [label="Embarked <= 1.5\ngini = 0.363\nsamples = 21\nvalue = [5, 16]\nclass = Died"] ;
84 -> 85 ;
86 [label="SibSp <= 0.5\ngini = 0.5\nsamples = 2\nvalue = [1, 1]\nclass = Survived"] ;
85 -> 86 ;
87 [label="gini = 0.0\nsamples = 1\nvalue = [0, 1]\nclass = Died"] ;
86 -> 87 ;
88 [label="gini = 0.0\nsamples = 1\nvalue = [1, 0]\nclass = Survived"] ;
86 -> 88 ;
89 [label="SibSp <= 0.5\ngini = 0.332\nsamples = 19\nvalue = [4, 15]\nclass = Died"] ;
85 -> 89 ;
90 [label="gini = 0.391\nsamples = 15\nvalue = [4, 11]\nclass = Died"] ;
89 -> 90 ;
91 [label="gini = 0.0\nsamples = 4\nvalue = [0, 4]\nclass = Died"] ;
89 -> 91 ;
92 [label="Embarked <= 1.5\ngini = 0.48\nsamples = 5\nvalue = [2, 3]\nclass = Died"] ;
84 -> 92 ;
93 [label="SibSp <= 0.5\ngini = 0.375\nsamples = 4\nvalue = [1, 3]\nclass = Died"] ;
92 -> 93 ;
94 [label="Parch <= 2.5\ngini = 0.444\nsamples = 3\nvalue = [1, 2]\nclass = Died"] ;
93 -> 94 ;
95 [label="gini = 0.5\nsamples = 2\nvalue = [1, 1]\nclass = Survived"] ;
94 -> 95 ;
96 [label="gini = 0.0\nsamples = 1\nvalue = [0, 1]\nclass = Died"] ;
94 -> 96 ;
97 [label="gini = 0.0\nsamples = 1\nvalue = [0, 1]\nclass = Died"] ;
93 -> 97 ;
98 [label="gini = 0.0\nsamples = 1\nvalue = [1, 0]\nclass = Survived"] ;
92 -> 98 ;
99 [label="gini = 0.0\nsamples = 1\nvalue = [1, 0]\nclass = Survived"] ;
81 -> 99 ;
100 [label="Cabin <= 0.5\ngini = 0.282\nsamples = 389\nvalue = [323, 66]\nclass = Survived"] ;
0 -> 100 [labeldistance=2.5, labelangle=-45, headlabel="False"] ;
101 [label="Age <= 0.5\ngini = 0.214\nsamples = 320\nvalue = [281, 39]\nclass = Survived"] ;
100 -> 101 ;
102 [label="SibSp <= 1.5\ngini = 0.485\nsamples = 29\nvalue = [17, 12]\nclass = Survived"] ;
101 -> 102 ;
103 [label="Fare <= 0.5\ngini = 0.457\nsamples = 17\nvalue = [6, 11]\nclass = Died"] ;
102 -> 103 ;
104 [label="gini = 0.0\nsamples = 2\nvalue = [2, 0]\nclass = Survived"] ;
103 -> 104 ;
105 [label="Parch <= 0.5\ngini = 0.391\nsamples = 15\nvalue = [4, 11]\nclass = Died"] ;
103 -> 105 ;
106 [label="gini = 0.444\nsamples = 3\nvalue = [2, 1]\nclass = Survived"] ;
105 -> 106 ;
107 [label="Parch <= 2.5\ngini = 0.278\nsamples = 12\nvalue = [2, 10]\nclass = Died"] ;
105 -> 107 ;
108 [label="Pclass <= 2.5\ngini = 0.165\nsamples = 11\nvalue = [1, 10]\nclass = Died"] ;
107 -> 108 ;
109 [label="gini = 0.0\nsamples = 5\nvalue = [0, 5]\nclass = Died"] ;
108 -> 109 ;
110 [label="Parch <= 1.5\ngini = 0.278\nsamples = 6\nvalue = [1, 5]\nclass = Died"] ;
108 -> 110 ;
111 [label="Fare <= 1.5\ngini = 0.375\nsamples = 4\nvalue = [1, 3]\nclass = Died"] ;
110 -> 111 ;
112 [label="gini = 0.0\nsamples = 1\nvalue = [0, 1]\nclass = Died"] ;
111 -> 112 ;
113 [label="gini = 0.444\nsamples = 3\nvalue = [1, 2]\nclass = Died"] ;
111 -> 113 ;
114 [label="gini = 0.0\nsamples = 2\nvalue = [0, 2]\nclass = Died"] ;
110 -> 114 ;
115 [label="gini = 0.0\nsamples = 1\nvalue = [1, 0]\nclass = Survived"] ;
107 -> 115 ;
116 [label="Parch <= 1.5\ngini = 0.153\nsamples = 12\nvalue = [11, 1]\nclass = Survived"] ;
102 -> 116 ;
117 [label="gini = 0.0\nsamples = 7\nvalue = [7, 0]\nclass = Survived"] ;
116 -> 117 ;
118 [label="SibSp <= 4.5\ngini = 0.32\nsamples = 5\nvalue = [4, 1]\nclass = Survived"] ;
116 -> 118 ;
119 [label="Fare <= 2.5\ngini = 0.444\nsamples = 3\nvalue = [2, 1]\nclass = Survived"] ;
118 -> 119 ;
120 [label="gini = 0.0\nsamples = 1\nvalue = [1, 0]\nclass = Survived"] ;
119 -> 120 ;
121 [label="gini = 0.5\nsamples = 2\nvalue = [1, 1]\nclass = Survived"] ;
119 -> 121 ;
122 [label="gini = 0.0\nsamples = 2\nvalue = [2, 0]\nclass = Survived"] ;
118 -> 122 ;
123 [label="Pclass <= 1.5\ngini = 0.168\nsamples = 291\nvalue = [264, 27]\nclass = Survived"] ;
101 -> 123 ;
124 [label="SibSp <= 1.0\ngini = 0.332\nsamples = 19\nvalue = [15, 4]\nclass = Survived"] ;
123 -> 124 ;
125 [label="Fare <= 2.5\ngini = 0.278\nsamples = 18\nvalue = [15, 3]\nclass = Survived"] ;
124 -> 125 ;
126 [label="Age <= 1.5\ngini = 0.355\nsamples = 13\nvalue = [10, 3]\nclass = Survived"] ;
125 -> 126 ;
127 [label="gini = 0.0\nsamples = 1\nvalue = [0, 1]\nclass = Died"] ;
126 -> 127 ;
128 [label="Age <= 2.5\ngini = 0.278\nsamples = 12\nvalue = [10, 2]\nclass = Survived"] ;
126 -> 128 ;
129 [label="Fare <= 1.0\ngini = 0.346\nsamples = 9\nvalue = [7, 2]\nclass = Survived"] ;
128 -> 129 ;
130 [label="gini = 0.0\nsamples = 1\nvalue = [1, 0]\nclass = Survived"] ;
129 -> 130 ;
131 [label="Embarked <= 0.5\ngini = 0.375\nsamples = 8\nvalue = [6, 2]\nclass = Survived"] ;
129 -> 131 ;
132 [label="gini = 0.444\nsamples = 3\nvalue = [2, 1]\nclass = Survived"] ;
131 -> 132 ;
133 [label="gini = 0.32\nsamples = 5\nvalue = [4, 1]\nclass = Survived"] ;
131 -> 133 ;
134 [label="gini = 0.0\nsamples = 3\nvalue = [3, 0]\nclass = Survived"] ;
128 -> 134 ;
135 [label="gini = 0.0\nsamples = 5\nvalue = [5, 0]\nclass = Survived"] ;
125 -> 135 ;
136 [label="gini = 0.0\nsamples = 1\nvalue = [0, 1]\nclass = Died"] ;
124 -> 136 ;
137 [label="Age <= 1.5\ngini = 0.155\nsamples = 272\nvalue = [249, 23]\nclass = Survived"] ;
123 -> 137 ;
138 [label="Embarked <= 1.5\ngini = 0.181\nsamples = 199\nvalue = [179, 20]\nclass = Survived"] ;
137 -> 138 ;
139 [label="Embarked <= 0.5\ngini = 0.198\nsamples = 180\nvalue = [160, 20]\nclass = Survived"] ;
138 -> 139 ;
140 [label="Fare <= 1.5\ngini = 0.162\nsamples = 157\nvalue = [143, 14]\nclass = Survived"] ;
139 -> 140 ;
141 [label="Pclass <= 2.5\ngini = 0.181\nsamples = 129\nvalue = [116, 13]\nclass = Survived"] ;
140 -> 141 ;
142 [label="Fare <= 0.5\ngini = 0.147\nsamples = 25\nvalue = [23, 2]\nclass = Survived"] ;
141 -> 142 ;
143 [label="gini = 0.0\nsamples = 4\nvalue = [4, 0]\nclass = Survived"] ;
142 -> 143 ;
144 [label="SibSp <= 0.5\ngini = 0.172\nsamples = 21\nvalue = [19, 2]\nclass = Survived"] ;
142 -> 144 ;
145 [label="gini = 0.18\nsamples = 20\nvalue = [18, 2]\nclass = Survived"] ;
144 -> 145 ;
146 [label="gini = 0.0\nsamples = 1\nvalue = [1, 0]\nclass = Survived"] ;
144 -> 146 ;
147 [label="SibSp <= 0.5\ngini = 0.189\nsamples = 104\nvalue = [93, 11]\nclass = Survived"] ;
141 -> 147 ;
148 [label="Fare <= 0.5\ngini = 0.183\nsamples = 98\nvalue = [88, 10]\nclass = Survived"] ;
147 -> 148 ;
149 [label="gini = 0.188\nsamples = 57\nvalue = [51, 6]\nclass = Survived"] ;
148 -> 149 ;
150 [label="gini = 0.176\nsamples = 41\nvalue = [37, 4]\nclass = Survived"] ;
148 -> 150 ;
151 [label="Fare <= 0.5\ngini = 0.278\nsamples = 6\nvalue = [5, 1]\nclass = Survived"] ;
147 -> 151 ;
152 [label="gini = 0.0\nsamples = 4\nvalue = [4, 0]\nclass = Survived"] ;
151 -> 152 ;
153 [label="SibSp <= 1.5\ngini = 0.5\nsamples = 2\nvalue = [1, 1]\nclass = Survived"] ;
151 -> 153 ;
154 [label="gini = 0.0\nsamples = 1\nvalue = [0, 1]\nclass = Died"] ;
153 -> 154 ;
155 [label="gini = 0.0\nsamples = 1\nvalue = [1, 0]\nclass = Survived"] ;
153 -> 155 ;
156 [label="Fare <= 2.5\ngini = 0.069\nsamples = 28\nvalue = [27, 1]\nclass = Survived"] ;
140 -> 156 ;
157 [label="gini = 0.0\nsamples = 19\nvalue = [19, 0]\nclass = Survived"] ;
156 -> 157 ;
158 [label="SibSp <= 0.5\ngini = 0.198\nsamples = 9\nvalue = [8, 1]\nclass = Survived"] ;
156 -> 158 ;
159 [label="Pclass <= 2.5\ngini = 0.375\nsamples = 4\nvalue = [3, 1]\nclass = Survived"] ;
158 -> 159 ;
160 [label="gini = 0.0\nsamples = 1\nvalue = [1, 0]\nclass = Survived"] ;
159 -> 160 ;
161 [label="gini = 0.444\nsamples = 3\nvalue = [2, 1]\nclass = Survived"] ;
159 -> 161 ;
162 [label="gini = 0.0\nsamples = 5\nvalue = [5, 0]\nclass = Survived"] ;
158 -> 162 ;
163 [label="SibSp <= 0.5\ngini = 0.386\nsamples = 23\nvalue = [17, 6]\nclass = Survived"] ;
139 -> 163 ;
164 [label="Pclass <= 2.5\ngini = 0.43\nsamples = 16\nvalue = [11, 5]\nclass = Survived"] ;
163 -> 164 ;
165 [label="gini = 0.0\nsamples = 1\nvalue = [0, 1]\nclass = Died"] ;
164 -> 165 ;
166 [label="Fare <= 1.0\ngini = 0.391\nsamples = 15\nvalue = [11, 4]\nclass = Survived"] ;
164 -> 166 ;
167 [label="gini = 0.408\nsamples = 14\nvalue = [10, 4]\nclass = Survived"] ;
166 -> 167 ;
168 [label="gini = 0.0\nsamples = 1\nvalue = [1, 0]\nclass = Survived"] ;
166 -> 168 ;
169 [label="Parch <= 0.5\ngini = 0.245\nsamples = 7\nvalue = [6, 1]\nclass = Survived"] ;
163 -> 169 ;
170 [label="gini = 0.0\nsamples = 4\nvalue = [4, 0]\nclass = Survived"] ;
169 -> 170 ;
171 [label="Parch <= 1.5\ngini = 0.444\nsamples = 3\nvalue = [2, 1]\nclass = Survived"] ;
169 -> 171 ;
172 [label="Fare <= 1.0\ngini = 0.5\nsamples = 2\nvalue = [1, 1]\nclass = Survived"] ;
171 -> 172 ;
173 [label="gini = 0.0\nsamples = 1\nvalue = [1, 0]\nclass = Survived"] ;
172 -> 173 ;
174 [label="gini = 0.0\nsamples = 1\nvalue = [0, 1]\nclass = Died"] ;
172 -> 174 ;
175 [label="gini = 0.0\nsamples = 1\nvalue = [1, 0]\nclass = Survived"] ;
171 -> 175 ;
176 [label="gini = 0.0\nsamples = 19\nvalue = [19, 0]\nclass = Survived"] ;
138 -> 176 ;
177 [label="Fare <= 0.5\ngini = 0.079\nsamples = 73\nvalue = [70, 3]\nclass = Survived"] ;
137 -> 177 ;
178 [label="gini = 0.0\nsamples = 21\nvalue = [21, 0]\nclass = Survived"] ;
177 -> 178 ;
179 [label="Fare <= 1.5\ngini = 0.109\nsamples = 52\nvalue = [49, 3]\nclass = Survived"] ;
177 -> 179 ;
180 [label="Age <= 2.5\ngini = 0.161\nsamples = 34\nvalue = [31, 3]\nclass = Survived"] ;
179 -> 180 ;
181 [label="SibSp <= 0.5\ngini = 0.236\nsamples = 22\nvalue = [19, 3]\nclass = Survived"] ;
180 -> 181 ;
182 [label="Embarked <= 0.5\ngini = 0.255\nsamples = 20\nvalue = [17, 3]\nclass = Survived"] ;
181 -> 182 ;
183 [label="Parch <= 0.5\ngini = 0.266\nsamples = 19\nvalue = [16, 3]\nclass = Survived"] ;
182 -> 183 ;
184 [label="Pclass <= 2.5\ngini = 0.278\nsamples = 18\nvalue = [15, 3]\nclass = Survived"] ;
183 -> 184 ;
185 [label="gini = 0.278\nsamples = 6\nvalue = [5, 1]\nclass = Survived"] ;
184 -> 185 ;
186 [label="gini = 0.278\nsamples = 12\nvalue = [10, 2]\nclass = Survived"] ;
184 -> 186 ;
187 [label="gini = 0.0\nsamples = 1\nvalue = [1, 0]\nclass = Survived"] ;
183 -> 187 ;
188 [label="gini = 0.0\nsamples = 1\nvalue = [1, 0]\nclass = Survived"] ;
182 -> 188 ;
189 [label="gini = 0.0\nsamples = 2\nvalue = [2, 0]\nclass = Survived"] ;
181 -> 189 ;
190 [label="gini = 0.0\nsamples = 12\nvalue = [12, 0]\nclass = Survived"] ;
180 -> 190 ;
191 [label="gini = 0.0\nsamples = 18\nvalue = [18, 0]\nclass = Survived"] ;
179 -> 191 ;
192 [label="Age <= 0.5\ngini = 0.476\nsamples = 69\nvalue = [42, 27]\nclass = Survived"] ;
100 -> 192 ;
193 [label="gini = 0.0\nsamples = 5\nvalue = [0, 5]\nclass = Died"] ;
192 -> 193 ;
194 [label="Fare <= 0.5\ngini = 0.451\nsamples = 64\nvalue = [42, 22]\nclass = Survived"] ;
192 -> 194 ;
195 [label="gini = 0.0\nsamples = 7\nvalue = [7, 0]\nclass = Survived"] ;
194 -> 195 ;
196 [label="Fare <= 2.5\ngini = 0.474\nsamples = 57\nvalue = [35, 22]\nclass = Survived"] ;
194 -> 196 ;
197 [label="Age <= 2.5\ngini = 0.496\nsamples = 22\nvalue = [10, 12]\nclass = Died"] ;
196 -> 197 ;
198 [label="Parch <= 0.5\ngini = 0.469\nsamples = 16\nvalue = [6, 10]\nclass = Died"] ;
197 -> 198 ;
199 [label="Embarked <= 0.5\ngini = 0.444\nsamples = 15\nvalue = [5, 10]\nclass = Died"] ;
198 -> 199 ;
200 [label="Pclass <= 1.5\ngini = 0.48\nsamples = 10\nvalue = [4, 6]\nclass = Died"] ;
199 -> 200 ;
201 [label="Age <= 1.5\ngini = 0.5\nsamples = 8\nvalue = [4, 4]\nclass = Survived"] ;
200 -> 201 ;
202 [label="gini = 0.0\nsamples = 1\nvalue = [1, 0]\nclass = Survived"] ;
201 -> 202 ;
203 [label="gini = 0.49\nsamples = 7\nvalue = [3, 4]\nclass = Died"] ;
201 -> 203 ;
204 [label="gini = 0.0\nsamples = 2\nvalue = [0, 2]\nclass = Died"] ;
200 -> 204 ;
205 [label="Fare <= 1.5\ngini = 0.32\nsamples = 5\nvalue = [1, 4]\nclass = Died"] ;
199 -> 205 ;
206 [label="gini = 0.0\nsamples = 1\nvalue = [1, 0]\nclass = Survived"] ;
205 -> 206 ;
207 [label="gini = 0.0\nsamples = 4\nvalue = [0, 4]\nclass = Died"] ;
205 -> 207 ;
208 [label="gini = 0.0\nsamples = 1\nvalue = [1, 0]\nclass = Survived"] ;
198 -> 208 ;
209 [label="Embarked <= 0.5\ngini = 0.444\nsamples = 6\nvalue = [4, 2]\nclass = Survived"] ;
197 -> 209 ;
210 [label="Age <= 3.5\ngini = 0.48\nsamples = 5\nvalue = [3, 2]\nclass = Survived"] ;
209 -> 210 ;
211 [label="gini = 0.444\nsamples = 3\nvalue = [2, 1]\nclass = Survived"] ;
210 -> 211 ;
212 [label="gini = 0.5\nsamples = 2\nvalue = [1, 1]\nclass = Survived"] ;
210 -> 212 ;
213 [label="gini = 0.0\nsamples = 1\nvalue = [1, 0]\nclass = Survived"] ;
209 -> 213 ;
214 [label="Embarked <= 0.5\ngini = 0.408\nsamples = 35\nvalue = [25, 10]\nclass = Survived"] ;
196 -> 214 ;
215 [label="SibSp <= 0.5\ngini = 0.34\nsamples = 23\nvalue = [18, 5]\nclass = Survived"] ;
214 -> 215 ;
216 [label="Parch <= 0.5\ngini = 0.153\nsamples = 12\nvalue = [11, 1]\nclass = Survived"] ;
215 -> 216 ;
217 [label="Age <= 1.5\ngini = 0.198\nsamples = 9\nvalue = [8, 1]\nclass = Survived"] ;
216 -> 217 ;
218 [label="gini = 0.0\nsamples = 1\nvalue = [1, 0]\nclass = Survived"] ;
217 -> 218 ;
219 [label="Age <= 2.5\ngini = 0.219\nsamples = 8\nvalue = [7, 1]\nclass = Survived"] ;
217 -> 219 ;
220 [label="gini = 0.245\nsamples = 7\nvalue = [6, 1]\nclass = Survived"] ;
219 -> 220 ;
221 [label="gini = 0.0\nsamples = 1\nvalue = [1, 0]\nclass = Survived"] ;
219 -> 221 ;
222 [label="gini = 0.0\nsamples = 3\nvalue = [3, 0]\nclass = Survived"] ;
216 -> 222 ;
223 [label="Age <= 2.5\ngini = 0.463\nsamples = 11\nvalue = [7, 4]\nclass = Survived"] ;
215 -> 223 ;
224 [label="SibSp <= 2.0\ngini = 0.5\nsamples = 8\nvalue = [4, 4]\nclass = Survived"] ;
223 -> 224 ;
225 [label="Parch <= 1.0\ngini = 0.49\nsamples = 7\nvalue = [3, 4]\nclass = Died"] ;
224 -> 225 ;
226 [label="Age <= 1.5\ngini = 0.5\nsamples = 6\nvalue = [3, 3]\nclass = Survived"] ;
225 -> 226 ;
227 [label="gini = 0.5\nsamples = 2\nvalue = [1, 1]\nclass = Survived"] ;
226 -> 227 ;
228 [label="gini = 0.5\nsamples = 4\nvalue = [2, 2]\nclass = Survived"] ;
226 -> 228 ;
229 [label="gini = 0.0\nsamples = 1\nvalue = [0, 1]\nclass = Died"] ;
225 -> 229 ;
230 [label="gini = 0.0\nsamples = 1\nvalue = [1, 0]\nclass = Survived"] ;
224 -> 230 ;
231 [label="gini = 0.0\nsamples = 3\nvalue = [3, 0]\nclass = Survived"] ;
223 -> 231 ;
232 [label="Age <= 3.5\ngini = 0.486\nsamples = 12\nvalue = [7, 5]\nclass = Survived"] ;
214 -> 232 ;
233 [label="Parch <= 1.5\ngini = 0.5\nsamples = 10\nvalue = [5, 5]\nclass = Survived"] ;
232 -> 233 ;
234 [label="Parch <= 0.5\ngini = 0.494\nsamples = 9\nvalue = [4, 5]\nclass = Died"] ;
233 -> 234 ;
235 [label="Age <= 1.5\ngini = 0.48\nsamples = 5\nvalue = [3, 2]\nclass = Survived"] ;
234 -> 235 ;
236 [label="gini = 0.0\nsamples = 1\nvalue = [1, 0]\nclass = Survived"] ;
235 -> 236 ;
237 [label="Age <= 2.5\ngini = 0.5\nsamples = 4\nvalue = [2, 2]\nclass = Survived"] ;
235 -> 237 ;
238 [label="SibSp <= 0.5\ngini = 0.5\nsamples = 2\nvalue = [1, 1]\nclass = Survived"] ;
237 -> 238 ;
239 [label="gini = 0.0\nsamples = 1\nvalue = [1, 0]\nclass = Survived"] ;
238 -> 239 ;
240 [label="gini = 0.0\nsamples = 1\nvalue = [0, 1]\nclass = Died"] ;
238 -> 240 ;
241 [label="SibSp <= 0.5\ngini = 0.5\nsamples = 2\nvalue = [1, 1]\nclass = Survived"] ;
237 -> 241 ;
242 [label="gini = 0.0\nsamples = 1\nvalue = [0, 1]\nclass = Died"] ;
241 -> 242 ;
243 [label="gini = 0.0\nsamples = 1\nvalue = [1, 0]\nclass = Survived"] ;
241 -> 243 ;
244 [label="Age <= 2.5\ngini = 0.375\nsamples = 4\nvalue = [1, 3]\nclass = Died"] ;
234 -> 244 ;
245 [label="gini = 0.0\nsamples = 2\nvalue = [0, 2]\nclass = Died"] ;
244 -> 245 ;
246 [label="gini = 0.5\nsamples = 2\nvalue = [1, 1]\nclass = Survived"] ;
244 -> 246 ;
247 [label="gini = 0.0\nsamples = 1\nvalue = [1, 0]\nclass = Survived"] ;
233 -> 247 ;
248 [label="gini = 0.0\nsamples = 2\nvalue = [2, 0]\nclass = Survived"] ;
232 -> 248 ;
}